   1.4863152e-02  -2.7717579e-01  -1.0984867e-01  -2.9356228e-01  -8.1471205e-02   7.9436059e-02   4.7390503e-02   2.4820933e-02  -1.1778466e-02   2.1208578e-01   4.3239495e-01  -1.7213097e-02  -1.6014332e-01   6.2061295e-02   5.1235955e-01   9.3303839e-01  -3.1358985e-01  -6.9961267e-01   1.4132598e-02   9.2013290e-02   9.3333619e-01   3.5664666e-01  -3.0860534e-01  -3.7697585e-02   1.4689415e+00  -1.3074630e-01   1.2656972e-02   3.1544237e-02  -3.0440548e-03   6.1869597e-01  -3.0752932e-02   1.2771972e-01   2.1531483e-01  -5.0622163e-02  -3.5877609e-01  -1.8822314e-02   2.2390545e-02  -6.9605656e-02   1.7517520e-01  -6.4313359e-02  -2.0291110e-01   2.3823599e-02  -9.5876213e-01  -1.3432810e+00  -5.6302005e-01   5.9524826e-03   5.7362977e-03  -2.4354730e-01  -1.2336719e+00  -1.1006132e+00  -6.0993220e-01   5.5607524e-01  -1.8093150e+00   2.8237758e-01  -1.9336309e+00  -1.9176224e-01   5.5406746e-01  -1.0965604e+00   1.4573167e-01  -9.8065571e-01  -5.2280312e-02   3.1093160e-01  -2.4132915e+00  -5.6287897e-01  -9.9725112e-01  -2.9864415e-02   1.1999686e-01  -2.6395403e-02  -4.5403151e-03  -3.3800629e-01   3.1022231e-02   1.1569899e+01   4.5773483e-02  -2.5062038e-01  -4.3995220e-01  -2.4302763e-01   3.7059727e-01  -1.5793266e-01  -4.4421339e-02   2.7142320e-05   1.2364313e-02   2.1590088e-01  -4.9701768e-02  -3.3543971e-02  -3.3099134e-01  -1.1113010e-02   3.0911589e-01  -4.6939267e-01   9.0572504e-02   1.3095340e+00   2.6723095e-01  -2.3859884e-01  -4.8139580e-01  -9.0116889e-03  -7.4526803e-01   4.0013758e-02   2.7522712e-01  -2.2718263e-01   2.1382736e-01   6.0027318e-02  -1.3850327e-01   2.2426146e-01   1.6095615e-01  -4.7282377e-01  -2.7157766e-01  -9.0975920e-02  -3.5617090e-01  -3.3552107e-01  -1.0269889e-01   6.3843577e-02   1.4394208e-01   5.5514662e-02  -1.0992238e-01  -9.8947089e-02  -5.8360590e-01  -2.5325497e-01  -5.9310838e-01   5.5760035e-02  -9.7562144e-02  -1.3293142e-01  -8.1171781e-01  -1.4841143e-01  -9.5107905e-02   1.4643364e-01  -6.1520745e-01   2.0978197e-01  -4.1182434e-01  -4.9102443e-01   1.5229607e-01  -3.4803110e-01   1.7542678e-01  -1.4385086e-01  -4.5439425e-01   2.0377027e-01  -4.4424807e-01  -2.3844669e-01  -5.2185073e-01   5.6271735e-02   1.6603125e-01   6.4702537e-02   2.8254541e-02  -1.3449020e-01  -4.5812893e-02   4.3187116e-01   1.4730838e-01  -4.7422083e-01  -1.6465156e-01  -4.6718739e-01  -4.3544292e-02   9.2434754e-02  -4.5808506e-02  -1.8807792e-01   1.0863080e-02   6.0622212e-02   1.1709292e-01   4.3967633e-02  -1.7040071e-01  -1.0256202e-02   5.6168223e-01   1.2236328e-01   1.4492810e-02   1.0722905e-01  -2.2273299e-02   1.2827867e-01   1.3413923e-01  -6.5161709e-02  -1.0922931e-01  -3.2181619e-01   3.8181656e-01   1.6053405e-01  -1.8547368e-01  -1.4425861e-01   3.4971831e-01   1.1640778e-01   1.6192212e+00  -4.5178993e-01  -3.7394227e-01  -2.8155920e-01   2.1268183e-02   1.7930670e-01  -4.4363317e-01   6.9514176e-02   2.9845262e-01   5.8598556e-02  -4.4066792e-01  -4.1701111e-01  -6.1944779e-01  -5.6800678e-01  -2.9342737e-01  -4.3793737e-01  -1.3334141e-01  -2.1189564e-01  -1.9351276e-01  -7.4803694e-01  -1.6801785e+00   5.6221000e-01  -7.5267954e-01   3.7998397e-01  -7.6917071e-01  -6.9344569e-02   5.5957040e-01  -7.4015826e-01   2.4801910e-01  -7.6518342e-01   3.3882270e-02   1.9140922e-01  -2.1223692e+00  -5.5811057e-01  -1.6652535e+00  -1.4353660e-01   2.9346566e-02  -3.6165364e-01   1.3977851e-01  -1.9920461e-01  -2.1506112e-01   7.6858462e-01  -3.0999508e-01   4.5076623e-01   1.2518017e+00   4.6636609e-01  -7.3321269e-01  -5.1602346e-02  -7.2070796e-01  -1.0215559e-01  -4.6230766e-03  -3.6322593e-01  -3.3758508e-03   4.5252781e-03  -1.1602860e-01  -1.4006730e-01   1.2887121e-02   5.0861392e-02   3.8403787e-01  -2.3168263e-02   3.3772624e-01   8.7291784e-02   6.7048465e-02   3.7397760e-02  -5.1783160e-01  -1.2644954e-01   1.2772703e-01  -9.9871939e-02   3.2476038e-01  -9.6389276e-02  -1.5853890e-02   1.4307707e-01   4.1449454e-01  -2.1329606e+00   6.1947682e-01  -4.1798494e-02  -2.3705436e-01   1.9277320e-02  -1.1275108e-01  -2.4667191e-02  -1.2327031e-01  -4.1881006e-02  -6.6819406e-02  -9.9169945e-02   1.5399891e-01   2.7196558e-01   1.3785442e-01   8.7880049e-02  -1.0529695e-01   3.6271206e-01   2.5646154e-01   1.5980928e-01   8.7207006e-02  -2.7629690e-01   4.0725284e-01   6.8007890e-03   5.5275327e-01   6.6469148e-03  -2.7162895e-01   1.6343535e-01   7.7263456e-02   1.3599412e-01   1.2111483e-02  -3.0147759e-01   7.3224858e-01   4.0036573e-01   4.1439279e-01   9.9677335e-03   9.7516426e-03   2.9884358e-01  -2.5046061e-03   4.5222395e-01  -1.5396503e-02  -5.1296873e-01   9.8694117e-01  -5.5387561e-01  -2.7163290e-01  -5.7840773e-01   3.3437599e-01   3.9738521e-02  -1.0110390e-02  -1.5080450e-01   2.3904101e-02  -9.7914727e-03   1.4005221e-02   2.9050699e-02  -8.2924931e-02  -1.4062050e-02  -1.9958310e-01   5.0306122e-03  -2.8584654e-01  -3.2416243e-01  -6.1193985e-01   1.9283493e-01   1.6504831e-02  -5.8543626e-02   1.2226160e-01   4.6882899e-01   9.2888337e-01   7.4751859e-02  -3.3244563e-01  -7.1503072e-02  -3.4015206e-01   3.6575737e-01  -3.3523368e-01  -1.5285360e+00  -1.9867171e-02  -1.1868807e-01  -1.2282604e+00   3.2670908e-01   2.1198108e-02  -3.1511514e-01  -1.4156564e-01  -3.1828471e-01   4.8380353e-01   1.5154233e-02  -4.5993964e-02  -1.4559730e-02   6.1696361e-02  -9.3650630e-02   1.0137067e-02  -2.5971957e-01   4.6936370e-02  -4.3914335e-02  -1.9892414e+00   1.3095283e-02   3.7805206e-02  -4.1264452e-01   3.8037951e-02   9.4903183e-03   3.8877788e-03  -4.7500675e-02   1.4627932e-02   7.2780500e-02   3.4853886e-02   1.3975374e-01  -2.8353273e-01  -8.1543119e-03  -2.5904333e-01  -8.4321578e-02   2.8442276e-02  -2.2683720e-01  -5.2552181e-01   2.4902347e-02   6.0777054e-01   7.2053877e-02   0.0000000e+00   0.0000000e+00   0.0000000e+00   0.0000000e+00   0.0000000e+00   0.0000000e+00   0.0000000e+00   0.0000000e+00   0.0000000e+00   0.0000000e+00   0.0000000e+00   0.0000000e+00   0.0000000e+00   0.0000000e+00   0.0000000e+00   0.0000000e+00   0.0000000e+00   0.0000000e+00   0.0000000e+00   0.0000000e+00   0.0000000e+00   0.0000000e+00   0.0000000e+00   0.0000000e+00   0.0000000e+00   0.0000000e+00   0.0000000e+00   0.0000000e+00   0.0000000e+00   0.0000000e+00   0.0000000e+00   0.0000000e+00   0.0000000e+00   0.0000000e+00   0.0000000e+00   1.0000000e+00
