   7.7846858e-01  -3.7418668e+00  -1.8607528e+00  -8.4380119e-01   1.8758282e+00  -2.9271851e+00   3.1131877e+00   1.4320766e-01   6.6021234e-01   2.4714295e+00  -6.0744021e-01   2.3182440e+00  -4.2692668e-01   2.6729762e+00  -4.2117669e-01   3.1436544e-01  -3.9245391e-01   8.2612092e-01   2.9579827e+00  -2.6155319e+00  -4.5289987e-01  -9.8497029e-01   2.6252950e+00  -4.4757000e-01  -9.7956718e-02  -9.8588636e-01  -1.9725715e+00  -4.2581091e-01   1.2176898e-01   3.1446235e-01  -2.7569629e+00   2.2207407e+00  -3.8264747e+00   5.1223108e-01  -6.5017052e-01  -2.6938124e+00  -1.8377526e+00   1.7605857e+00  -3.4259520e-01   1.3029704e+00   2.3722026e+00   1.3741738e+00  -2.0839905e+00  -2.5408008e+00  -9.4253372e-01  -4.1093747e-01  -1.1884318e+00  -8.9147504e-01   5.3745008e-01  -4.2677624e-01   1.0053708e+00   5.0305545e-02  -1.4123934e+00   2.1664853e+00  -3.1292727e+00  -1.3511052e+00  -4.4544885e-01   1.0896042e+00  -1.2046722e+00   1.3940021e+00  -4.4781221e-01   2.0992722e+00   3.3130362e-01   1.5730886e-01   1.5687405e+00  -3.2063946e+00   2.2864624e+00  -3.4688581e-01  -8.0097246e-03  -7.5557198e-01  -2.5708943e+00  -3.5671263e-01   6.8203123e-02   2.8000659e-01   1.9815965e+00   1.6593008e+00  -4.2006021e+00   2.2334499e+00  -2.7909248e-01   2.4481022e+00  -3.1296215e-01   2.3904011e-02  -2.7214084e-01   1.5704523e+00   4.1919879e-01   3.1906226e-03   1.9633073e+00  -4.0664041e+00  -1.9608195e+00  -1.7769050e-01  -3.8249117e+00  -1.7468916e-01  -2.4487968e+00  -1.6690814e-01   3.3114214e-01   8.1303195e+00  -1.0254800e+00  -1.4642328e+00   1.9121876e-01  -1.3956235e-01  -1.5952813e+00  -2.2924127e+00  -1.5353991e+00  -2.5143356e+00  -7.3892978e-01  -3.4431106e+00   2.8167846e-01  -2.0702931e-01   4.2910742e-01  -1.7002295e+00  -2.5281143e+00  -1.2440441e+00  -3.3694230e+00  -2.9205915e+00   7.8347026e-01  -7.4680019e-01  -4.9691141e-01   5.1996362e-01   2.1094943e+00   1.0414769e-01  -1.5579833e+00   5.3424877e-01  -1.7141131e+00  -4.6223936e-01  -8.8907049e-01   2.4405895e+00  -6.7339436e-01  -3.7357548e+00   7.8297041e-01  -3.9145592e+00   3.8988796e-01  -2.1920156e+00   3.1483751e+00  -2.4491314e-01  -6.1678569e-02  -6.4492050e+00  -2.8384085e-02   3.4339624e-01  -1.5561466e+00   8.0260576e-01   2.5142977e-01   1.5612954e+00  -1.0153629e+00   1.5678794e+00  -2.7246332e-01   2.8576555e+00  -1.3071536e+00  -3.8313622e-02  -3.2624832e-01  -1.9469295e+00   5.3902540e-01   1.3993059e-02  -9.3755722e-01  -2.0933566e+00   4.2136592e-01  -1.0802376e+00  -3.0500551e-01  -1.2356008e+00  -2.8536722e+00  -5.5958837e-01  -3.4112592e-02   1.1571701e+00   1.8256517e+00  -3.3558523e+00  -1.3446412e+00  -1.9020858e+00  -7.1340019e-01   3.4009516e+00  -6.4209544e-01   1.3063161e+00  -3.9166077e-01   1.1326683e-01   8.4406262e-01  -7.1781770e-02  -2.5984153e+00  -3.5492295e+00   1.4000667e+00  -6.1227363e-01  -9.5801292e-01  -6.5085956e-01  -8.4182168e-01  -6.1132434e-01  -1.8604300e+00   5.4297397e-01  -2.4828265e+00  -2.4650772e+00  -2.2871391e+00  -1.4670558e+00  -4.4952939e-01  -2.6648623e+00  -1.0057964e+00   3.2119548e+00  -4.3459819e-01   1.8931259e-01   8.8671726e-01  -1.9263944e+00  -1.5421132e+00  -4.7558209e+00  -1.2070861e+00  -1.3644355e+00   2.3914182e+00  -4.4281235e-01  -3.1725078e+00  -1.3759813e+00  -1.9639060e-02   2.6130405e-01   1.2688179e-02  -3.3106112e+00  -1.6621521e+00  -1.8453531e+00  -1.4383567e+00   1.4448931e-01  -1.4972851e+00  -2.1059393e+00  -1.4397463e+00   2.1339961e+00   3.4681112e-01   1.4686670e+00   1.1017753e+00  -1.6099365e+00  -2.1633534e-02  -9.0497559e-01  -1.1861210e+00  -8.9058331e-01  -1.9078108e-02  -3.7143610e-01  -3.0187762e+00   9.9280337e-01   4.6361708e-01  -2.9089381e+00  -1.1952991e+00   2.3802612e-01  -3.7791009e-01   2.2766634e+00  -5.4339542e-01   7.6868490e-03  -5.4031593e+00   1.1032853e+00   4.6788615e-01   3.0280099e+00  -2.5735891e+00  -6.7801031e-01   9.1435333e-01   5.7245021e-01  -3.4883834e+01   5.7747263e-01  -1.5707195e-02  -5.6631751e+01  -2.0790843e+00  -5.1561664e-01   1.3274069e+00   5.8880689e+00   2.8673392e-01  -1.7970967e+00  -1.4254502e+00   1.7011254e+00  -1.8798475e-01   2.1716712e+00  -8.0608943e-01  -1.6612069e+00   1.7000877e+00   1.2681374e-01   1.7246682e-01  -1.7100429e+00  -4.4132963e-01  -5.6121858e-01   2.6984448e+00  -6.9449387e-01  -2.5863757e+00  -5.4929246e-01  -1.6256009e+00   1.9322864e+00   1.1391677e+00   1.7959756e-01  -2.0511457e+00  -3.3593358e-01  -6.9342316e-01   3.7488874e+00  -2.3354468e+00  -2.0761483e-01  -6.7990294e-01  -2.2000648e+00  -5.7701517e-02  -5.0355042e+00   9.3320638e-01  -2.4507030e+00
